digraph Tree {
node [shape=box, style="rounded", color="black", fontname=helvetica] ;
edge [fontname=helvetica] ;
0 [label="log2_timp2 <= 0.3\nmse = 0.2\nsamples = 287\nvalue = 1.5"] ;
1 [label="log2_Hu_MCP_1_MCAF__53 <= -0.4\nmse = 0.2\nsamples = 186\nvalue = 1.3"] ;
0 -> 1 [labeldistance=2.5, labelangle=45, headlabel="True"] ;
2 [label="log2_timp2 <= -2.3\nmse = 0.1\nsamples = 74\nvalue = 1.1"] ;
1 -> 2 ;
3 [label="mse = 0.0\nsamples = 3\nvalue = 2.0"] ;
2 -> 3 ;
4 [label="mse = 0.1\nsamples = 71\nvalue = 1.1"] ;
2 -> 4 ;
5 [label="log2_timp1 <= -1.0\nmse = 0.2\nsamples = 112\nvalue = 1.5"] ;
1 -> 5 ;
6 [label="mse = 0.0\nsamples = 13\nvalue = 1.0"] ;
5 -> 6 ;
7 [label="mse = 0.2\nsamples = 99\nvalue = 1.6"] ;
5 -> 7 ;
8 [label="log2_Hu_PDGF_bb__47 <= -1.0\nmse = 0.1\nsamples = 101\nvalue = 1.8"] ;
0 -> 8 [labeldistance=2.5, labelangle=-45, headlabel="False"] ;
9 [label="log2_Hu_IL_5__33 <= -2.0\nmse = 0.1\nsamples = 9\nvalue = 1.2"] ;
8 -> 9 ;
10 [label="mse = 0.0\nsamples = 1\nvalue = 2.0"] ;
9 -> 10 ;
11 [label="mse = 0.0\nsamples = 8\nvalue = 1.0"] ;
9 -> 11 ;
12 [label="log2_Hu_IL_1b__39 <= 2.0\nmse = 0.1\nsamples = 92\nvalue = 1.9"] ;
8 -> 12 ;
13 [label="mse = 0.1\nsamples = 89\nvalue = 1.9"] ;
12 -> 13 ;
14 [label="mse = 0.0\nsamples = 3\nvalue = 1.0"] ;
12 -> 14 ;
}