digraph Tree {
node [shape=box, style="rounded", color="black", fontname=helvetica] ;
edge [fontname=helvetica] ;
0 [label="log2_timp1 <= 0.0\nmse = 0.2\nsamples = 283\nvalue = 1.5"] ;
1 [label="log2_timp3 <= 0.7\nmse = 0.2\nsamples = 125\nvalue = 1.4"] ;
0 -> 1 [labeldistance=2.5, labelangle=45, headlabel="True"] ;
2 [label="log2_mbl <= 0.7\nmse = 0.2\nsamples = 97\nvalue = 1.3"] ;
1 -> 2 ;
3 [label="mse = 0.2\nsamples = 68\nvalue = 1.4"] ;
2 -> 3 ;
4 [label="mse = 0.0\nsamples = 29\nvalue = 1.0"] ;
2 -> 4 ;
5 [label="log2_ang2 <= -1.5\nmse = 0.2\nsamples = 28\nvalue = 1.7"] ;
1 -> 5 ;
6 [label="mse = 0.0\nsamples = 3\nvalue = 1.0"] ;
5 -> 6 ;
7 [label="mse = 0.2\nsamples = 25\nvalue = 1.8"] ;
5 -> 7 ;
8 [label="log2_tpa <= -0.8\nmse = 0.2\nsamples = 158\nvalue = 1.7"] ;
0 -> 8 [labeldistance=2.5, labelangle=-45, headlabel="False"] ;
9 [label="log2_Hu_MIP_1a__55 <= 0.0\nmse = 0.2\nsamples = 18\nvalue = 1.3"] ;
8 -> 9 ;
10 [label="mse = 0.2\nsamples = 11\nvalue = 1.6"] ;
9 -> 10 ;
11 [label="mse = 0.0\nsamples = 7\nvalue = 1.0"] ;
9 -> 11 ;
12 [label="log2_timp1 <= 0.8\nmse = 0.2\nsamples = 140\nvalue = 1.7"] ;
8 -> 12 ;
13 [label="mse = 0.2\nsamples = 96\nvalue = 1.6"] ;
12 -> 13 ;
14 [label="mse = 0.1\nsamples = 44\nvalue = 1.9"] ;
12 -> 14 ;
}