digraph Tree {
node [shape=box, style="rounded", color="black", fontname=helvetica] ;
edge [fontname=helvetica] ;
0 [label="log2_rage <= 0.2\nmse = 0.2\nsamples = 285\nvalue = 1.5"] ;
1 [label="log2_timp1 <= -0.5\nmse = 0.2\nsamples = 183\nvalue = 1.4"] ;
0 -> 1 [labeldistance=2.5, labelangle=45, headlabel="True"] ;
2 [label="log2_Hu_IFN_g__21 <= 1.6\nmse = 0.1\nsamples = 60\nvalue = 1.2"] ;
1 -> 2 ;
3 [label="mse = 0.1\nsamples = 57\nvalue = 1.1"] ;
2 -> 3 ;
4 [label="mse = 0.0\nsamples = 3\nvalue = 2.0"] ;
2 -> 4 ;
5 [label="log2_Hu_G_CSF__57 <= 1.3\nmse = 0.2\nsamples = 123\nvalue = 1.5"] ;
1 -> 5 ;
6 [label="mse = 0.2\nsamples = 110\nvalue = 1.6"] ;
5 -> 6 ;
7 [label="mse = 0.0\nsamples = 13\nvalue = 1.0"] ;
5 -> 7 ;
8 [label="log2_Hu_MCP_1_MCAF__53 <= -0.7\nmse = 0.2\nsamples = 102\nvalue = 1.8"] ;
0 -> 8 [labeldistance=2.5, labelangle=-45, headlabel="False"] ;
9 [label="log2_sdc1 <= -1.3\nmse = 0.2\nsamples = 15\nvalue = 1.3"] ;
8 -> 9 ;
10 [label="mse = 0.1\nsamples = 4\nvalue = 1.8"] ;
9 -> 10 ;
11 [label="mse = 0.1\nsamples = 11\nvalue = 1.1"] ;
9 -> 11 ;
12 [label="log2_Hu_IFN_g__21 <= 1.9\nmse = 0.1\nsamples = 87\nvalue = 1.8"] ;
8 -> 12 ;
13 [label="mse = 0.1\nsamples = 84\nvalue = 1.9"] ;
12 -> 13 ;
14 [label="mse = 0.0\nsamples = 3\nvalue = 1.0"] ;
12 -> 14 ;
}