digraph Tree {
node [shape=box, style="rounded", color="black", fontname=helvetica] ;
edge [fontname=helvetica] ;
0 [label="log2_Hu_MCP_1_MCAF__53 <= -0.1\nmse = 0.2\nsamples = 279\nvalue = 1.5"] ;
1 [label="log2_timp4 <= 0.4\nmse = 0.2\nsamples = 114\nvalue = 1.3"] ;
0 -> 1 [labeldistance=2.5, labelangle=45, headlabel="True"] ;
2 [label="log2_Hu_RANTES__37 <= 1.2\nmse = 0.1\nsamples = 87\nvalue = 1.2"] ;
1 -> 2 ;
3 [label="mse = 0.1\nsamples = 80\nvalue = 1.1"] ;
2 -> 3 ;
4 [label="mse = 0.2\nsamples = 7\nvalue = 1.7"] ;
2 -> 4 ;
5 [label="log2_pai1 <= 0.0\nmse = 0.2\nsamples = 27\nvalue = 1.6"] ;
1 -> 5 ;
6 [label="mse = 0.2\nsamples = 19\nvalue = 1.4"] ;
5 -> 6 ;
7 [label="mse = 0.0\nsamples = 8\nvalue = 2.0"] ;
5 -> 7 ;
8 [label="log2_timp1 <= 0.2\nmse = 0.2\nsamples = 165\nvalue = 1.7"] ;
0 -> 8 [labeldistance=2.5, labelangle=-45, headlabel="False"] ;
9 [label="log2_pai1 <= 0.4\nmse = 0.2\nsamples = 98\nvalue = 1.5"] ;
8 -> 9 ;
10 [label="mse = 0.2\nsamples = 69\nvalue = 1.4"] ;
9 -> 10 ;
11 [label="mse = 0.2\nsamples = 29\nvalue = 1.8"] ;
9 -> 11 ;
12 [label="log2_Hu_IL_10__56 <= -1.1\nmse = 0.1\nsamples = 67\nvalue = 1.8"] ;
8 -> 12 ;
13 [label="mse = 0.0\nsamples = 3\nvalue = 1.0"] ;
12 -> 13 ;
14 [label="mse = 0.1\nsamples = 64\nvalue = 1.9"] ;
12 -> 14 ;
}