digraph Tree {
node [shape=box, style="rounded", color="black", fontname=helvetica] ;
edge [fontname=helvetica] ;
0 [label="log2_timp1 <= 0.2\nmse = 0.2\nsamples = 278\nvalue = 1.5"] ;
1 [label="log2_rage <= -0.4\nmse = 0.2\nsamples = 200\nvalue = 1.4"] ;
0 -> 1 [labeldistance=2.5, labelangle=45, headlabel="True"] ;
2 [label="log2_tfpi <= -0.1\nmse = 0.1\nsamples = 76\nvalue = 1.1"] ;
1 -> 2 ;
3 [label="log2_Hu_MIP_1a__55 <= 4.8\nmse = 0.0\nsamples = 37\nvalue = 1.0"] ;
2 -> 3 ;
4 [label="mse = 0.0\nsamples = 36\nvalue = 1.0"] ;
3 -> 4 ;
5 [label="mse = 0.0\nsamples = 1\nvalue = 2.0"] ;
3 -> 5 ;
6 [label="log2_ang2 <= 0.7\nmse = 0.2\nsamples = 39\nvalue = 1.3"] ;
2 -> 6 ;
7 [label="log2_Hu_IL_9__77 <= -2.8\nmse = 0.1\nsamples = 29\nvalue = 1.2"] ;
6 -> 7 ;
8 [label="mse = 0.0\nsamples = 3\nvalue = 2.0"] ;
7 -> 8 ;
9 [label="log2_tfpi <= 0.0\nmse = 0.1\nsamples = 26\nvalue = 1.1"] ;
7 -> 9 ;
10 [label="log2_Hu_IL_10__56 <= -0.0\nmse = 0.2\nsamples = 3\nvalue = 1.7"] ;
9 -> 10 ;
11 [label="mse = 0.0\nsamples = 2\nvalue = 2.0"] ;
10 -> 11 ;
12 [label="mse = 0.0\nsamples = 1\nvalue = 1.0"] ;
10 -> 12 ;
13 [label="log2_ang1 <= -2.3\nmse = 0.0\nsamples = 23\nvalue = 1.1"] ;
9 -> 13 ;
14 [label="mse = 0.0\nsamples = 1\nvalue = 2.0"] ;
13 -> 14 ;
15 [label="log2_Hu_MIP_1b__18 <= 2.2\nmse = 0.0\nsamples = 22\nvalue = 1.0"] ;
13 -> 15 ;
16 [label="mse = 0.0\nsamples = 21\nvalue = 1.0"] ;
15 -> 16 ;
17 [label="mse = 0.0\nsamples = 1\nvalue = 2.0"] ;
15 -> 17 ;
18 [label="log2_ang2 <= 1.7\nmse = 0.2\nsamples = 10\nvalue = 1.8"] ;
6 -> 18 ;
19 [label="mse = 0.0\nsamples = 7\nvalue = 2.0"] ;
18 -> 19 ;
20 [label="log2_mbl <= -0.7\nmse = 0.2\nsamples = 3\nvalue = 1.2"] ;
18 -> 20 ;
21 [label="mse = 0.0\nsamples = 1\nvalue = 2.0"] ;
20 -> 21 ;
22 [label="mse = 0.0\nsamples = 2\nvalue = 1.0"] ;
20 -> 22 ;
23 [label="log2_Hu_G_CSF__57 <= 0.6\nmse = 0.2\nsamples = 124\nvalue = 1.5"] ;
1 -> 23 ;
24 [label="log2_pap <= 0.3\nmse = 0.2\nsamples = 103\nvalue = 1.6"] ;
23 -> 24 ;
25 [label="log2_pai1 <= -0.6\nmse = 0.2\nsamples = 76\nvalue = 1.5"] ;
24 -> 25 ;
26 [label="log2_rage <= -0.2\nmse = 0.1\nsamples = 9\nvalue = 1.1"] ;
25 -> 26 ;
27 [label="mse = 0.0\nsamples = 1\nvalue = 2.0"] ;
26 -> 27 ;
28 [label="mse = 0.0\nsamples = 8\nvalue = 1.0"] ;
26 -> 28 ;
29 [label="log2_hmgb1 <= -1.3\nmse = 0.2\nsamples = 67\nvalue = 1.5"] ;
25 -> 29 ;
30 [label="mse = 0.0\nsamples = 7\nvalue = 1.0"] ;
29 -> 30 ;
31 [label="log2_Hu_IP_10__48 <= -0.6\nmse = 0.2\nsamples = 60\nvalue = 1.6"] ;
29 -> 31 ;
32 [label="mse = 0.0\nsamples = 6\nvalue = 2.0"] ;
31 -> 32 ;
33 [label="log2_Hu_Eotaxin__43 <= 0.1\nmse = 0.2\nsamples = 54\nvalue = 1.6"] ;
31 -> 33 ;
34 [label="log2_sdc1 <= -0.4\nmse = 0.2\nsamples = 39\nvalue = 1.6"] ;
33 -> 34 ;
35 [label="mse = 0.0\nsamples = 5\nvalue = 1.0"] ;
34 -> 35 ;
36 [label="log2_pap <= -0.4\nmse = 0.2\nsamples = 34\nvalue = 1.7"] ;
34 -> 36 ;
37 [label="mse = 0.0\nsamples = 5\nvalue = 2.0"] ;
36 -> 37 ;
38 [label="log2_sdc1 <= 0.3\nmse = 0.2\nsamples = 29\nvalue = 1.6"] ;
36 -> 38 ;
39 [label="log2_ang1 <= -1.0\nmse = 0.2\nsamples = 27\nvalue = 1.7"] ;
38 -> 39 ;
40 [label="mse = 0.0\nsamples = 1\nvalue = 1.0"] ;
39 -> 40 ;
41 [label="log2_rage <= -0.0\nmse = 0.2\nsamples = 26\nvalue = 1.7"] ;
39 -> 41 ;
42 [label="mse = 0.0\nsamples = 2\nvalue = 2.0"] ;
41 -> 42 ;
43 [label="log2_Hu_Eotaxin__43 <= -1.0\nmse = 0.2\nsamples = 24\nvalue = 1.7"] ;
41 -> 43 ;
44 [label="mse = 0.0\nsamples = 1\nvalue = 2.0"] ;
43 -> 44 ;
45 [label="log2_Hu_Eotaxin__43 <= -0.4\nmse = 0.2\nsamples = 23\nvalue = 1.7"] ;
43 -> 45 ;
46 [label="mse = 0.0\nsamples = 1\nvalue = 1.0"] ;
45 -> 46 ;
47 [label="log2_ang1 <= -0.1\nmse = 0.2\nsamples = 22\nvalue = 1.7"] ;
45 -> 47 ;
48 [label="mse = 0.0\nsamples = 1\nvalue = 2.0"] ;
47 -> 48 ;
49 [label="log2_hmgb1 <= 0.7\nmse = 0.2\nsamples = 21\nvalue = 1.7"] ;
47 -> 49 ;
50 [label="mse = 0.2\nsamples = 20\nvalue = 1.6"] ;
49 -> 50 ;
51 [label="mse = 0.0\nsamples = 1\nvalue = 2.0"] ;
49 -> 51 ;
52 [label="mse = 0.0\nsamples = 2\nvalue = 1.0"] ;
38 -> 52 ;
53 [label="log2_Hu_MCP_1_MCAF__53 <= -0.1\nmse = 0.2\nsamples = 15\nvalue = 1.4"] ;
33 -> 53 ;
54 [label="log2_hmgb1 <= 0.2\nmse = 0.1\nsamples = 5\nvalue = 1.9"] ;
53 -> 54 ;
55 [label="mse = 0.0\nsamples = 4\nvalue = 2.0"] ;
54 -> 55 ;
56 [label="mse = 0.0\nsamples = 1\nvalue = 1.0"] ;
54 -> 56 ;
57 [label="log2_Hu_Eotaxin__43 <= 0.7\nmse = 0.1\nsamples = 10\nvalue = 1.1"] ;
53 -> 57 ;
58 [label="log2_Hu_Eotaxin__43 <= 0.5\nmse = 0.1\nsamples = 5\nvalue = 1.1"] ;
57 -> 58 ;
59 [label="mse = 0.0\nsamples = 4\nvalue = 1.0"] ;
58 -> 59 ;
60 [label="mse = 0.0\nsamples = 1\nvalue = 2.0"] ;
58 -> 60 ;
61 [label="mse = 0.0\nsamples = 5\nvalue = 1.0"] ;
57 -> 61 ;
62 [label="log2_ang1 <= 0.6\nmse = 0.1\nsamples = 27\nvalue = 1.9"] ;
24 -> 62 ;
63 [label="log2_tpa <= -1.1\nmse = 0.0\nsamples = 23\nvalue = 2.0"] ;
62 -> 63 ;
64 [label="mse = 0.0\nsamples = 1\nvalue = 1.0"] ;
63 -> 64 ;
65 [label="log2_timp3 <= 0.9\nmse = 0.0\nsamples = 22\nvalue = 2.0"] ;
63 -> 65 ;
66 [label="mse = 0.0\nsamples = 20\nvalue = 2.0"] ;
65 -> 66 ;
67 [label="log2_Hu_IFN_g__21 <= 0.3\nmse = 0.2\nsamples = 2\nvalue = 1.5"] ;
65 -> 67 ;
68 [label="mse = 0.0\nsamples = 1\nvalue = 1.0"] ;
67 -> 68 ;
69 [label="mse = 0.0\nsamples = 1\nvalue = 2.0"] ;
67 -> 69 ;
70 [label="log2_hmgb1 <= -0.9\nmse = 0.2\nsamples = 4\nvalue = 1.3"] ;
62 -> 70 ;
71 [label="mse = 0.0\nsamples = 1\nvalue = 2.0"] ;
70 -> 71 ;
72 [label="mse = 0.0\nsamples = 3\nvalue = 1.0"] ;
70 -> 72 ;
73 [label="log2_Hu_TNF_a__36 <= 0.3\nmse = 0.1\nsamples = 21\nvalue = 1.2"] ;
23 -> 73 ;
74 [label="log2_tat <= 0.6\nmse = 0.2\nsamples = 7\nvalue = 1.6"] ;
73 -> 74 ;
75 [label="mse = 0.0\nsamples = 4\nvalue = 2.0"] ;
74 -> 75 ;
76 [label="mse = 0.0\nsamples = 3\nvalue = 1.0"] ;
74 -> 76 ;
77 [label="mse = 0.0\nsamples = 14\nvalue = 1.0"] ;
73 -> 77 ;
78 [label="log2_pap <= -0.4\nmse = 0.1\nsamples = 78\nvalue = 1.8"] ;
0 -> 78 [labeldistance=2.5, labelangle=-45, headlabel="False"] ;
79 [label="log2_mbl <= -0.3\nmse = 0.2\nsamples = 12\nvalue = 1.4"] ;
78 -> 79 ;
80 [label="mse = 0.0\nsamples = 4\nvalue = 2.0"] ;
79 -> 80 ;
81 [label="log2_Hu_RANTES__37 <= 0.8\nmse = 0.1\nsamples = 8\nvalue = 1.2"] ;
79 -> 81 ;
82 [label="mse = 0.0\nsamples = 7\nvalue = 1.0"] ;
81 -> 82 ;
83 [label="mse = 0.0\nsamples = 1\nvalue = 2.0"] ;
81 -> 83 ;
84 [label="log2_Hu_IP_10__48 <= -1.1\nmse = 0.1\nsamples = 66\nvalue = 1.9"] ;
78 -> 84 ;
85 [label="log2_Hu_IL_8__54 <= -0.3\nmse = 0.2\nsamples = 4\nvalue = 1.2"] ;
84 -> 85 ;
86 [label="mse = 0.0\nsamples = 1\nvalue = 2.0"] ;
85 -> 86 ;
87 [label="mse = 0.0\nsamples = 3\nvalue = 1.0"] ;
85 -> 87 ;
88 [label="log2_ang1 <= -2.6\nmse = 0.1\nsamples = 62\nvalue = 1.9"] ;
84 -> 88 ;
89 [label="mse = 0.0\nsamples = 1\nvalue = 1.0"] ;
88 -> 89 ;
90 [label="log2_mbl <= -2.9\nmse = 0.0\nsamples = 61\nvalue = 1.9"] ;
88 -> 90 ;
91 [label="mse = 0.0\nsamples = 1\nvalue = 1.0"] ;
90 -> 91 ;
92 [label="log2_tat <= -2.0\nmse = 0.0\nsamples = 60\nvalue = 2.0"] ;
90 -> 92 ;
93 [label="mse = 0.0\nsamples = 1\nvalue = 1.0"] ;
92 -> 93 ;
94 [label="log2_sdc1 <= 2.0\nmse = 0.0\nsamples = 59\nvalue = 2.0"] ;
92 -> 94 ;
95 [label="mse = 0.0\nsamples = 54\nvalue = 2.0"] ;
94 -> 95 ;
96 [label="log2_pai1 <= -0.2\nmse = 0.2\nsamples = 5\nvalue = 1.6"] ;
94 -> 96 ;
97 [label="mse = 0.0\nsamples = 2\nvalue = 1.0"] ;
96 -> 97 ;
98 [label="mse = 0.0\nsamples = 3\nvalue = 2.0"] ;
96 -> 98 ;
}