digraph Tree {
node [shape=box, style="rounded", color="black", fontname=helvetica] ;
edge [fontname=helvetica] ;
0 [label="log2_rage <= -0.7\nmse = 0.2\nsamples = 278\nvalue = 1.5"] ;
1 [label="log2_timp1 <= 0.1\nmse = 0.1\nsamples = 73\nvalue = 1.2"] ;
0 -> 1 [labeldistance=2.5, labelangle=45, headlabel="True"] ;
2 [label="log2_sdc1 <= -1.9\nmse = 0.1\nsamples = 58\nvalue = 1.1"] ;
1 -> 2 ;
3 [label="mse = 0.0\nsamples = 1\nvalue = 2.0"] ;
2 -> 3 ;
4 [label="log2_ang1 <= 2.5\nmse = 0.1\nsamples = 57\nvalue = 1.1"] ;
2 -> 4 ;
5 [label="log2_pap <= 0.5\nmse = 0.0\nsamples = 56\nvalue = 1.1"] ;
4 -> 5 ;
6 [label="log2_hmgb1 <= 1.4\nmse = 0.0\nsamples = 50\nvalue = 1.0"] ;
5 -> 6 ;
7 [label="log2_pai1 <= 1.3\nmse = 0.0\nsamples = 49\nvalue = 1.0"] ;
6 -> 7 ;
8 [label="mse = 0.0\nsamples = 48\nvalue = 1.0"] ;
7 -> 8 ;
9 [label="mse = 0.0\nsamples = 1\nvalue = 2.0"] ;
7 -> 9 ;
10 [label="mse = 0.0\nsamples = 1\nvalue = 2.0"] ;
6 -> 10 ;
11 [label="log2_Hu_MIP_1b__18 <= 1.4\nmse = 0.2\nsamples = 6\nvalue = 1.4"] ;
5 -> 11 ;
12 [label="mse = 0.0\nsamples = 3\nvalue = 2.0"] ;
11 -> 12 ;
13 [label="mse = 0.0\nsamples = 3\nvalue = 1.0"] ;
11 -> 13 ;
14 [label="mse = 0.0\nsamples = 1\nvalue = 2.0"] ;
4 -> 14 ;
15 [label="log2_pai1 <= -0.2\nmse = 0.2\nsamples = 15\nvalue = 1.7"] ;
1 -> 15 ;
16 [label="mse = 0.0\nsamples = 4\nvalue = 1.0"] ;
15 -> 16 ;
17 [label="mse = 0.0\nsamples = 11\nvalue = 2.0"] ;
15 -> 17 ;
18 [label="log2_timp1 <= 0.7\nmse = 0.2\nsamples = 205\nvalue = 1.6"] ;
0 -> 18 [labeldistance=2.5, labelangle=-45, headlabel="False"] ;
19 [label="log2_Hu_RANTES__37 <= -0.9\nmse = 0.2\nsamples = 163\nvalue = 1.5"] ;
18 -> 19 ;
20 [label="log2_ang1 <= -1.2\nmse = 0.1\nsamples = 15\nvalue = 1.2"] ;
19 -> 20 ;
21 [label="mse = 0.0\nsamples = 3\nvalue = 2.0"] ;
20 -> 21 ;
22 [label="mse = 0.0\nsamples = 12\nvalue = 1.0"] ;
20 -> 22 ;
23 [label="log2_tpa <= -0.7\nmse = 0.2\nsamples = 148\nvalue = 1.6"] ;
19 -> 23 ;
24 [label="log2_mbl <= -0.1\nmse = 0.2\nsamples = 18\nvalue = 1.2"] ;
23 -> 24 ;
25 [label="log2_rage <= -0.1\nmse = 0.2\nsamples = 7\nvalue = 1.7"] ;
24 -> 25 ;
26 [label="mse = 0.0\nsamples = 4\nvalue = 2.0"] ;
25 -> 26 ;
27 [label="mse = 0.0\nsamples = 3\nvalue = 1.0"] ;
25 -> 27 ;
28 [label="mse = 0.0\nsamples = 11\nvalue = 1.0"] ;
24 -> 28 ;
29 [label="log2_Hu_IL_10__56 <= 1.2\nmse = 0.2\nsamples = 130\nvalue = 1.6"] ;
23 -> 29 ;
30 [label="log2_Hu_IL_4__52 <= 1.5\nmse = 0.2\nsamples = 121\nvalue = 1.7"] ;
29 -> 30 ;
31 [label="log2_pap <= 0.3\nmse = 0.2\nsamples = 114\nvalue = 1.7"] ;
30 -> 31 ;
32 [label="log2_Hu_IL_6__19 <= -1.0\nmse = 0.2\nsamples = 80\nvalue = 1.6"] ;
31 -> 32 ;
33 [label="log2_Hu_TNF_a__36 <= -1.8\nmse = 0.1\nsamples = 6\nvalue = 1.1"] ;
32 -> 33 ;
34 [label="mse = 0.0\nsamples = 1\nvalue = 2.0"] ;
33 -> 34 ;
35 [label="mse = 0.0\nsamples = 5\nvalue = 1.0"] ;
33 -> 35 ;
36 [label="log2_pai1 <= 0.9\nmse = 0.2\nsamples = 74\nvalue = 1.6"] ;
32 -> 36 ;
37 [label="log2_Hu_G_CSF__57 <= -0.1\nmse = 0.2\nsamples = 68\nvalue = 1.7"] ;
36 -> 37 ;
38 [label="log2_Hu_Eotaxin__43 <= -1.6\nmse = 0.0\nsamples = 13\nvalue = 2.0"] ;
37 -> 38 ;
39 [label="mse = 0.0\nsamples = 1\nvalue = 1.0"] ;
38 -> 39 ;
40 [label="mse = 0.0\nsamples = 12\nvalue = 2.0"] ;
38 -> 40 ;
41 [label="log2_Hu_IL_1ra__25 <= 0.6\nmse = 0.2\nsamples = 55\nvalue = 1.6"] ;
37 -> 41 ;
42 [label="log2_Hu_Eotaxin__43 <= 0.2\nmse = 0.2\nsamples = 50\nvalue = 1.5"] ;
41 -> 42 ;
43 [label="log2_pap <= -0.2\nmse = 0.2\nsamples = 40\nvalue = 1.6"] ;
42 -> 43 ;
44 [label="mse = 0.0\nsamples = 4\nvalue = 1.0"] ;
43 -> 44 ;
45 [label="log2_Hu_Eotaxin__43 <= -1.3\nmse = 0.2\nsamples = 36\nvalue = 1.7"] ;
43 -> 45 ;
46 [label="mse = 0.0\nsamples = 2\nvalue = 1.0"] ;
45 -> 46 ;
47 [label="log2_Hu_Eotaxin__43 <= -0.1\nmse = 0.2\nsamples = 34\nvalue = 1.7"] ;
45 -> 47 ;
48 [label="mse = 0.0\nsamples = 4\nvalue = 2.0"] ;
47 -> 48 ;
49 [label="log2_ang1 <= 0.1\nmse = 0.2\nsamples = 30\nvalue = 1.7"] ;
47 -> 49 ;
50 [label="log2_tfpi <= 0.6\nmse = 0.2\nsamples = 28\nvalue = 1.6"] ;
49 -> 50 ;
51 [label="log2_ang1 <= -0.9\nmse = 0.2\nsamples = 27\nvalue = 1.6"] ;
50 -> 51 ;
52 [label="mse = 0.0\nsamples = 1\nvalue = 2.0"] ;
51 -> 52 ;
53 [label="log2_sdc1 <= 0.7\nmse = 0.2\nsamples = 26\nvalue = 1.6"] ;
51 -> 53 ;
54 [label="log2_hmgb1 <= -0.1\nmse = 0.2\nsamples = 25\nvalue = 1.6"] ;
53 -> 54 ;
55 [label="mse = 0.0\nsamples = 1\nvalue = 2.0"] ;
54 -> 55 ;
56 [label="log2_rage <= -0.4\nmse = 0.2\nsamples = 24\nvalue = 1.6"] ;
54 -> 56 ;
57 [label="mse = 0.0\nsamples = 1\nvalue = 2.0"] ;
56 -> 57 ;
58 [label="log2_rage <= -0.0\nmse = 0.2\nsamples = 23\nvalue = 1.6"] ;
56 -> 58 ;
59 [label="mse = 0.0\nsamples = 1\nvalue = 1.0"] ;
58 -> 59 ;
60 [label="mse = 0.2\nsamples = 22\nvalue = 1.6"] ;
58 -> 60 ;
61 [label="mse = 0.0\nsamples = 1\nvalue = 2.0"] ;
53 -> 61 ;
62 [label="mse = 0.0\nsamples = 1\nvalue = 2.0"] ;
50 -> 62 ;
63 [label="mse = 0.0\nsamples = 2\nvalue = 2.0"] ;
49 -> 63 ;
64 [label="log2_sdc1 <= -0.9\nmse = 0.2\nsamples = 10\nvalue = 1.2"] ;
42 -> 64 ;
65 [label="mse = 0.0\nsamples = 2\nvalue = 2.0"] ;
64 -> 65 ;
66 [label="log2_Hu_MIP_1a__55 <= -1.0\nmse = 0.1\nsamples = 8\nvalue = 1.1"] ;
64 -> 66 ;
67 [label="mse = 0.0\nsamples = 1\nvalue = 2.0"] ;
66 -> 67 ;
68 [label="mse = 0.0\nsamples = 7\nvalue = 1.0"] ;
66 -> 68 ;
69 [label="mse = 0.0\nsamples = 5\nvalue = 2.0"] ;
41 -> 69 ;
70 [label="log2_Hu_RANTES__37 <= 0.5\nmse = 0.1\nsamples = 6\nvalue = 1.1"] ;
36 -> 70 ;
71 [label="mse = 0.0\nsamples = 5\nvalue = 1.0"] ;
70 -> 71 ;
72 [label="mse = 0.0\nsamples = 1\nvalue = 2.0"] ;
70 -> 72 ;
73 [label="log2_Hu_IL_13__51 <= -0.9\nmse = 0.1\nsamples = 34\nvalue = 1.9"] ;
31 -> 73 ;
74 [label="mse = 0.0\nsamples = 2\nvalue = 1.0"] ;
73 -> 74 ;
75 [label="log2_Hu_IL_1b__39 <= 1.0\nmse = 0.1\nsamples = 32\nvalue = 1.9"] ;
73 -> 75 ;
76 [label="log2_Hu_MIP_1a__55 <= 1.2\nmse = 0.0\nsamples = 29\nvalue = 2.0"] ;
75 -> 76 ;
77 [label="log2_Hu_PDGF_bb__47 <= 2.9\nmse = 0.0\nsamples = 28\nvalue = 2.0"] ;
76 -> 77 ;
78 [label="mse = 0.0\nsamples = 27\nvalue = 2.0"] ;
77 -> 78 ;
79 [label="mse = 0.0\nsamples = 1\nvalue = 1.0"] ;
77 -> 79 ;
80 [label="mse = 0.0\nsamples = 1\nvalue = 1.0"] ;
76 -> 80 ;
81 [label="log2_timp1 <= 0.1\nmse = 0.2\nsamples = 3\nvalue = 1.3"] ;
75 -> 81 ;
82 [label="mse = 0.0\nsamples = 2\nvalue = 1.0"] ;
81 -> 82 ;
83 [label="mse = 0.0\nsamples = 1\nvalue = 2.0"] ;
81 -> 83 ;
84 [label="log2_Hu_Eotaxin__43 <= -0.0\nmse = 0.2\nsamples = 7\nvalue = 1.2"] ;
30 -> 84 ;
85 [label="mse = 0.0\nsamples = 2\nvalue = 2.0"] ;
84 -> 85 ;
86 [label="mse = 0.0\nsamples = 5\nvalue = 1.0"] ;
84 -> 86 ;
87 [label="log2_Hu_IL_1ra__25 <= 1.8\nmse = 0.2\nsamples = 9\nvalue = 1.2"] ;
29 -> 87 ;
88 [label="mse = 0.0\nsamples = 7\nvalue = 1.0"] ;
87 -> 88 ;
89 [label="mse = 0.0\nsamples = 2\nvalue = 2.0"] ;
87 -> 89 ;
90 [label="log2_Hu_IL_7__74 <= 0.8\nmse = 0.1\nsamples = 42\nvalue = 1.9"] ;
18 -> 90 ;
91 [label="log2_ang1 <= -1.2\nmse = 0.1\nsamples = 37\nvalue = 1.9"] ;
90 -> 91 ;
92 [label="log2_tpa <= -0.4\nmse = 0.2\nsamples = 4\nvalue = 1.5"] ;
91 -> 92 ;
93 [label="mse = 0.0\nsamples = 2\nvalue = 1.0"] ;
92 -> 93 ;
94 [label="mse = 0.0\nsamples = 2\nvalue = 2.0"] ;
92 -> 94 ;
95 [label="log2_timp3 <= -4.6\nmse = 0.0\nsamples = 33\nvalue = 2.0"] ;
91 -> 95 ;
96 [label="mse = 0.0\nsamples = 1\nvalue = 1.0"] ;
95 -> 96 ;
97 [label="mse = 0.0\nsamples = 32\nvalue = 2.0"] ;
95 -> 97 ;
98 [label="log2_stm <= 0.4\nmse = 0.2\nsamples = 5\nvalue = 1.4"] ;
90 -> 98 ;
99 [label="mse = 0.0\nsamples = 2\nvalue = 2.0"] ;
98 -> 99 ;
100 [label="mse = 0.0\nsamples = 3\nvalue = 1.0"] ;
98 -> 100 ;
}